digraph Tree {
node [shape=box] ;
0 [label="PATH_/usr/lib/libreoffice/program/soffice.bin <= 0.5\ngini = 0.0277\nsamples = 900505\nvalue = [887903, 9006, 563, 1320, 768, 696, 141, 108]"] ;
1 [label="PATH_/usr/lib/firefox/firefox <= 0.5\ngini = 0.0194\nsamples = 896670\nvalue = [887889, 5565, 563, 940, 768, 696, 141, 108]"] ;
0 -> 1 [labeldistance=2.5, labelangle=45, headlabel="True"] ;
2 [label="PATH_/usr/lib/unity/unity-panel-service <= 0.5\ngini = 0.0139\nsamples = 894128\nvalue = [887889, 3326, 563, 637, 768, 696, 141, 108]"] ;
1 -> 2 ;
3 [label="PATH_/bin/dbus-daemon <= 0.5\ngini = 0.0137\nsamples = 885204\nvalue = [879101, 3269, 554, 620, 768, 643, 141, 108]"] ;
2 -> 3 ;
4 [label="PATH_/usr/lib/i386-linux-gnu/indicator-datetime/indicator-datetime-service <= 0.5\ngini = 0.0136\nsamples = 881642\nvalue = [875607, 3239, 550, 612, 768, 617, 141, 108]"] ;
3 -> 4 ;
5 [label="PATH_/usr/lib/gvfs/gvfs-udisks2-volume-monitor <= 0.5\ngini = 0.0136\nsamples = 879932\nvalue = [873929, 3225, 548, 610, 768, 603, 141, 108]"] ;
4 -> 5 ;
6 [label="PATH_/usr/bin/apt-get <= 0.5\ngini = 0.0135\nsamples = 878781\nvalue = [872801, 3214, 548, 610, 768, 592, 141, 107]"] ;
5 -> 6 ;
7 [label="PATH_/usr/lib/udisks2/udisksd <= 0.5\ngini = 0.0135\nsamples = 878158\nvalue = [872191, 3201, 548, 610, 768, 592, 141, 107]"] ;
6 -> 7 ;
8 [label="PATH_/sbin/upstart-dbus-bridge <= 0.5\ngini = 0.0135\nsamples = 877114\nvalue = [871167, 3190, 546, 610, 768, 586, 141, 106]"] ;
7 -> 8 ;
9 [label="PATH_/usr/bin/apt-config <= 0.5\ngini = 0.0135\nsamples = 875496\nvalue = [869569, 3180, 546, 609, 768, 577, 141, 106]"] ;
8 -> 9 ;
10 [label="PATH_/usr/sbin/cron <= 0.5\ngini = 0.0135\nsamples = 874320\nvalue = [868407, 3169, 543, 609, 768, 577, 141, 106]"] ;
9 -> 10 ;
11 [label="SYS_CALL <= 6.5\ngini = 0.0135\nsamples = 873687\nvalue = [867774, 3169, 543, 609, 768, 577, 141, 106]"] ;
10 -> 11 ;
12 [label="PATH_/usr/bin/whoopsie <= 0.5\ngini = 0.0158\nsamples = 16743\nvalue = [16610, 68, 11, 12, 17, 18, 0, 7]"] ;
11 -> 12 ;
13 [label="PATH_/usr/lib/i386-linux-gnu/indicator-session/indicator-session-service <= 0.5\ngini = 0.0157\nsamples = 16731\nvalue = [16599, 67, 11, 12, 17, 18, 0, 7]"] ;
12 -> 13 ;
14 [label="PATH_/usr/bin/compiz <= 0.5\ngini = 0.0156\nsamples = 16717\nvalue = [16586, 66, 11, 12, 17, 18, 0, 7]"] ;
13 -> 14 ;
15 [label="PATH_/sbin/auditctl <= 0.5\ngini = 0.0111\nsamples = 5575\nvalue = [5544, 17, 0, 3, 6, 4, 0, 1]"] ;
14 -> 15 ;
16 [label="PATH_/usr/bin/Xorg <= 0.5\ngini = 0.0106\nsamples = 5460\nvalue = [5431, 15, 0, 3, 6, 4, 0, 1]"] ;
15 -> 16 ;
17 [label="PATH_/usr/bin/gnome-terminal <= 0.5\ngini = 0.006\nsamples = 2676\nvalue = [2668, 3, 0, 1, 2, 2, 0, 0]"] ;
16 -> 17 ;
18 [label="SYS_CALL <= 3.5\ngini = 0.0054\nsamples = 2590\nvalue = [2583, 2, 0, 1, 2, 2, 0, 0]"] ;
17 -> 18 ;
19 [label="PATH_/usr/bin/python3.4 <= 0.5\ngini = 0.0047\nsamples = 1261\nvalue = [1258, 2, 0, 1, 0, 0, 0, 0]"] ;
18 -> 19 ;
20 [label="PATH_/usr/lib/unity-settings-daemon/unity-settings-daemon <= 0.5\ngini = 0.0035\nsamples = 1125\nvalue = [1123, 2, 0, 0, 0, 0, 0, 0]"] ;
19 -> 20 ;
21 [label="PATH_/usr/lib/rtkit/rtkit-daemon <= 0.5\ngini = 0.0024\nsamples = 831\nvalue = [830, 1, 0, 0, 0, 0, 0, 0]"] ;
20 -> 21 ;
22 [label="gini = 0.0\nsamples = 321\nvalue = [321, 0, 0, 0, 0, 0, 0, 0]"] ;
21 -> 22 ;
23 [label="gini = 0.0039\nsamples = 510\nvalue = [509, 1, 0, 0, 0, 0, 0, 0]"] ;
21 -> 23 ;
24 [label="gini = 0.0068\nsamples = 294\nvalue = [293, 1, 0, 0, 0, 0, 0, 0]"] ;
20 -> 24 ;
25 [label="gini = 0.0146\nsamples = 136\nvalue = [135, 0, 0, 1, 0, 0, 0, 0]"] ;
19 -> 25 ;
26 [label="PATH_/usr/lib/rtkit/rtkit-daemon <= 0.5\ngini = 0.006\nsamples = 1329\nvalue = [1325, 0, 0, 0, 2, 2, 0, 0]"] ;
18 -> 26 ;
27 [label="PATH_/usr/lib/unity-settings-daemon/unity-settings-daemon <= 0.5\ngini = 0.0026\nsamples = 781\nvalue = [780, 0, 0, 0, 1, 0, 0, 0]"] ;
26 -> 27 ;
28 [label="gini = 0.0\nsamples = 536\nvalue = [536, 0, 0, 0, 0, 0, 0, 0]"] ;
27 -> 28 ;
29 [label="SYS_CALL <= 5.5\ngini = 0.0081\nsamples = 245\nvalue = [244, 0, 0, 0, 1, 0, 0, 0]"] ;
27 -> 29 ;
30 [label="SYS_CALL <= 4.5\ngini = 0.0156\nsamples = 127\nvalue = [126, 0, 0, 0, 1, 0, 0, 0]"] ;
29 -> 30 ;
31 [label="gini = 0.0\nsamples = 7\nvalue = [7, 0, 0, 0, 0, 0, 0, 0]"] ;
30 -> 31 ;
32 [label="gini = 0.0165\nsamples = 120\nvalue = [119, 0, 0, 0, 1, 0, 0, 0]"] ;
30 -> 32 ;
33 [label="gini = 0.0\nsamples = 118\nvalue = [118, 0, 0, 0, 0, 0, 0, 0]"] ;
29 -> 33 ;
34 [label="gini = 0.0109\nsamples = 548\nvalue = [545, 0, 0, 0, 1, 2, 0, 0]"] ;
26 -> 34 ;
35 [label="SYS_CALL <= 3.5\ngini = 0.023\nsamples = 86\nvalue = [85, 1, 0, 0, 0, 0, 0, 0]"] ;
17 -> 35 ;
36 [label="gini = 0.037\nsamples = 53\nvalue = [52, 1, 0, 0, 0, 0, 0, 0]"] ;
35 -> 36 ;
37 [label="gini = 0.0\nsamples = 33\nvalue = [33, 0, 0, 0, 0, 0, 0, 0]"] ;
35 -> 37 ;
38 [label="gini = 0.015\nsamples = 2784\nvalue = [2763, 12, 0, 2, 4, 2, 0, 1]"] ;
16 -> 38 ;
39 [label="SYS_CALL <= 4.5\ngini = 0.0342\nsamples = 115\nvalue = [113, 2, 0, 0, 0, 0, 0, 0]"] ;
15 -> 39 ;
40 [label="gini = 0.0\nsamples = 43\nvalue = [43, 0, 0, 0, 0, 0, 0, 0]"] ;
39 -> 40 ;
41 [label="SYS_CALL <= 5.5\ngini = 0.054\nsamples = 72\nvalue = [70, 2, 0, 0, 0, 0, 0, 0]"] ;
39 -> 41 ;
42 [label="gini = 0.0644\nsamples = 30\nvalue = [29, 1, 0, 0, 0, 0, 0, 0]"] ;
41 -> 42 ;
43 [label="gini = 0.0465\nsamples = 42\nvalue = [41, 1, 0, 0, 0, 0, 0, 0]"] ;
41 -> 43 ;
44 [label="SYS_CALL <= 5.5\ngini = 0.0178\nsamples = 11142\nvalue = [11042, 49, 11, 9, 11, 14, 0, 6]"] ;
14 -> 44 ;
45 [label="SYS_CALL <= 3.5\ngini = 0.0174\nsamples = 10765\nvalue = [10671, 49, 11, 9, 10, 14, 0, 1]"] ;
44 -> 45 ;
46 [label="SYS_CALL <= 2.0\ngini = 0.0167\nsamples = 9653\nvalue = [9572, 45, 9, 6, 10, 10, 0, 1]"] ;
45 -> 46 ;
47 [label="gini = 0.0\nsamples = 1\nvalue = [1, 0, 0, 0, 0, 0, 0, 0]"] ;
46 -> 47 ;
48 [label="gini = 0.0167\nsamples = 9652\nvalue = [9571, 45, 9, 6, 10, 10, 0, 1]"] ;
46 -> 48 ;
49 [label="SYS_CALL <= 4.5\ngini = 0.0232\nsamples = 1112\nvalue = [1099, 4, 2, 3, 0, 4, 0, 0]"] ;
45 -> 49 ;
50 [label="gini = 0.0232\nsamples = 1111\nvalue = [1098, 4, 2, 3, 0, 4, 0, 0]"] ;
49 -> 50 ;
51 [label="gini = 0.0\nsamples = 1\nvalue = [1, 0, 0, 0, 0, 0, 0, 0]"] ;
49 -> 51 ;
52 [label="gini = 0.0314\nsamples = 377\nvalue = [371, 0, 0, 0, 1, 0, 0, 5]"] ;
44 -> 52 ;
53 [label="gini = 0.1327\nsamples = 14\nvalue = [13, 1, 0, 0, 0, 0, 0, 0]"] ;
13 -> 53 ;
54 [label="gini = 0.1528\nsamples = 12\nvalue = [11, 1, 0, 0, 0, 0, 0, 0]"] ;
12 -> 54 ;
55 [label="PATH_/sbin/killall5 <= 0.5\ngini = 0.0134\nsamples = 856944\nvalue = [851164, 3101, 532, 597, 751, 559, 141, 99]"] ;
11 -> 55 ;
56 [label="SYS_CALL <= 63.5\ngini = 0.0134\nsamples = 856915\nvalue = [851136, 3100, 532, 597, 751, 559, 141, 99]"] ;
55 -> 56 ;
57 [label="PATH_/usr/bin/compiz <= 0.5\ngini = 0.0126\nsamples = 59419\nvalue = [59044, 191, 29, 35, 49, 60, 5, 6]"] ;
56 -> 57 ;
58 [label="PATH_/sbin/auditctl <= 0.5\ngini = 0.011\nsamples = 24348\nvalue = [24214, 67, 13, 11, 25, 14, 1, 3]"] ;
57 -> 58 ;
59 [label="PATH_/usr/bin/Xorg <= 0.5\ngini = 0.0109\nsamples = 24245\nvalue = [24113, 65, 13, 11, 25, 14, 1, 3]"] ;
58 -> 59 ;
60 [label="PATH_/usr/sbin/apache2 <= 0.5\ngini = 0.0087\nsamples = 3887\nvalue = [3870, 9, 0, 2, 2, 3, 1, 0]"] ;
59 -> 60 ;
61 [label="gini = 0.0\nsamples = 377\nvalue = [377, 0, 0, 0, 0, 0, 0, 0]"] ;
60 -> 61 ;
62 [label="gini = 0.0097\nsamples = 3510\nvalue = [3493, 9, 0, 2, 2, 3, 1, 0]"] ;
60 -> 62 ;
63 [label="gini = 0.0113\nsamples = 20358\nvalue = [20243, 56, 13, 9, 23, 11, 0, 3]"] ;
59 -> 63 ;
64 [label="SYS_CALL <= 39.0\ngini = 0.0381\nsamples = 103\nvalue = [101, 2, 0, 0, 0, 0, 0, 0]"] ;
58 -> 64 ;
65 [label="SYS_CALL <= 22.0\ngini = 0.0689\nsamples = 56\nvalue = [54, 2, 0, 0, 0, 0, 0, 0]"] ;
64 -> 65 ;
66 [label="gini = 0.0\nsamples = 11\nvalue = [11, 0, 0, 0, 0, 0, 0, 0]"] ;
65 -> 66 ;
67 [label="gini = 0.0849\nsamples = 45\nvalue = [43, 2, 0, 0, 0, 0, 0, 0]"] ;
65 -> 67 ;
68 [label="gini = 0.0\nsamples = 47\nvalue = [47, 0, 0, 0, 0, 0, 0, 0]"] ;
64 -> 68 ;
69 [label="gini = 0.0137\nsamples = 35071\nvalue = [34830, 124, 16, 24, 24, 46, 4, 3]"] ;
57 -> 69 ;
70 [label="SYS_CALL <= 71.0\ngini = 0.0135\nsamples = 797496\nvalue = [792092, 2909, 503, 562, 702, 499, 136, 93]"] ;
56 -> 70 ;
71 [label="gini = 0.4444\nsamples = 3\nvalue = [2, 0, 0, 1, 0, 0, 0, 0]"] ;
70 -> 71 ;
72 [label="SYS_CALL <= 241.5\ngini = 0.0135\nsamples = 797493\nvalue = [792090, 2909, 503, 561, 702, 499, 136, 93]"] ;
70 -> 72 ;
73 [label="SYS_CALL <= 103.0\ngini = 0.0137\nsamples = 461637\nvalue = [458452, 1727, 300, 326, 382, 317, 77, 56]"] ;
72 -> 73 ;
74 [label="PATH_/sbin/auditd <= 0.5\ngini = 0.0132\nsamples = 330236\nvalue = [328042, 1198, 207, 213, 292, 197, 48, 39]"] ;
73 -> 74 ;
75 [label="PATH_/usr/bin/Xorg <= 0.5\ngini = 0.0132\nsamples = 330178\nvalue = [327986, 1197, 206, 213, 292, 197, 48, 39]"] ;
74 -> 75 ;
76 [label="PATH_/usr/bin/gnome-terminal <= 0.5\ngini = 0.0133\nsamples = 309253\nvalue = [307182, 1138, 197, 202, 275, 177, 47, 35]"] ;
75 -> 76 ;
77 [label="PATH_/usr/sbin/apache2 <= 0.5\ngini = 0.0133\nsamples = 306377\nvalue = [304331, 1124, 196, 200, 271, 175, 46, 34]"] ;
76 -> 77 ;
78 [label="SYS_CALL <= 95.0\ngini = 0.0134\nsamples = 97036\nvalue = [96383, 371, 58, 53, 73, 76, 15, 7]"] ;
77 -> 78 ;
79 [label="PATH_/usr/bin/nautilus <= 0.5\ngini = 0.0158\nsamples = 11924\nvalue = [11829, 51, 9, 5, 7, 16, 3, 4]"] ;
78 -> 79 ;
80 [label="PATH_/usr/lib/unity-settings-daemon/unity-settings-daemon <= 0.5\ngini = 0.0157\nsamples = 11920\nvalue = [11826, 50, 9, 5, 7, 16, 3, 4]"] ;
79 -> 80 ;
81 [label="PATH_/usr/lib/i386-linux-gnu/unity-scope-home/unity-scope-home <= 0.5\ngini = 0.0157\nsamples = 11765\nvalue = [11672, 50, 9, 5, 6, 16, 3, 4]"] ;
80 -> 81 ;
82 [label="PATH_/usr/bin/compiz <= 0.5\ngini = 0.0157\nsamples = 11685\nvalue = [11593, 49, 9, 5, 6, 16, 3, 4]"] ;
81 -> 82 ;
83 [label="gini = 0.0\nsamples = 118\nvalue = [118, 0, 0, 0, 0, 0, 0, 0]"] ;
82 -> 83 ;
84 [label="SYS_CALL <= 88.0\ngini = 0.0158\nsamples = 11567\nvalue = [11475, 49, 9, 5, 6, 16, 3, 4]"] ;
82 -> 84 ;
85 [label="SYS_CALL <= 81.5\ngini = 0.0154\nsamples = 5699\nvalue = [5655, 26, 6, 3, 1, 6, 1, 1]"] ;
84 -> 85 ;
86 [label="gini = 0.0154\nsamples = 5698\nvalue = [5654, 26, 6, 3, 1, 6, 1, 1]"] ;
85 -> 86 ;
87 [label="gini = 0.0\nsamples = 1\nvalue = [1, 0, 0, 0, 0, 0, 0, 0]"] ;
85 -> 87 ;
88 [label="gini = 0.0163\nsamples = 5868\nvalue = [5820, 23, 3, 2, 5, 10, 2, 3]"] ;
84 -> 88 ;
89 [label="SYS_CALL <= 84.5\ngini = 0.0247\nsamples = 80\nvalue = [79, 1, 0, 0, 0, 0, 0, 0]"] ;
81 -> 89 ;
90 [label="gini = 0.0298\nsamples = 66\nvalue = [65, 1, 0, 0, 0, 0, 0, 0]"] ;
89 -> 90 ;
91 [label="gini = 0.0\nsamples = 14\nvalue = [14, 0, 0, 0, 0, 0, 0, 0]"] ;
89 -> 91 ;
92 [label="SYS_CALL <= 84.5\ngini = 0.0128\nsamples = 155\nvalue = [154, 0, 0, 0, 1, 0, 0, 0]"] ;
80 -> 92 ;
93 [label="gini = 0.0\nsamples = 1\nvalue = [1, 0, 0, 0, 0, 0, 0, 0]"] ;
92 -> 93 ;
94 [label="gini = 0.0129\nsamples = 154\nvalue = [153, 0, 0, 0, 1, 0, 0, 0]"] ;
92 -> 94 ;
95 [label="gini = 0.375\nsamples = 4\nvalue = [3, 1, 0, 0, 0, 0, 0, 0]"] ;
79 -> 95 ;
96 [label="PATH_/usr/lib/unity-settings-daemon/unity-settings-daemon <= 0.5\ngini = 0.0131\nsamples = 85112\nvalue = [84554, 320, 49, 48, 66, 60, 12, 3]"] ;
78 -> 96 ;
97 [label="PATH_/sbin/auditctl <= 0.5\ngini = 0.013\nsamples = 84747\nvalue = [84193, 318, 49, 48, 66, 58, 12, 3]"] ;
96 -> 97 ;
98 [label="PATH_/usr/bin/nautilus <= 0.5\ngini = 0.013\nsamples = 84679\nvalue = [84125, 318, 49, 48, 66, 58, 12, 3]"] ;
97 -> 98 ;
99 [label="PATH_/usr/bin/compiz <= 0.5\ngini = 0.013\nsamples = 82141\nvalue = [81605, 307, 48, 46, 65, 55, 12, 3]"] ;
98 -> 99 ;
100 [label="PATH_/usr/lib/i386-linux-gnu/unity-scope-home/unity-scope-home <= 0.5\ngini = 0.0067\nsamples = 299\nvalue = [298, 1, 0, 0, 0, 0, 0, 0]"] ;
99 -> 100 ;
101 [label="gini = 0.0\nsamples = 172\nvalue = [172, 0, 0, 0, 0, 0, 0, 0]"] ;
100 -> 101 ;
102 [label="gini = 0.0156\nsamples = 127\nvalue = [126, 1, 0, 0, 0, 0, 0, 0]"] ;
100 -> 102 ;
103 [label="gini = 0.013\nsamples = 81842\nvalue = [81307, 306, 48, 46, 65, 55, 12, 3]"] ;
99 -> 103 ;
104 [label="gini = 0.0141\nsamples = 2538\nvalue = [2520, 11, 1, 2, 1, 3, 0, 0]"] ;
98 -> 104 ;
105 [label="gini = 0.0\nsamples = 68\nvalue = [68, 0, 0, 0, 0, 0, 0, 0]"] ;
97 -> 105 ;
106 [label="SYS_CALL <= 100.5\ngini = 0.0217\nsamples = 365\nvalue = [361, 2, 0, 0, 0, 2, 0, 0]"] ;
96 -> 106 ;
107 [label="gini = 0.0\nsamples = 62\nvalue = [62, 0, 0, 0, 0, 0, 0, 0]"] ;
106 -> 107 ;
108 [label="gini = 0.0261\nsamples = 303\nvalue = [299, 2, 0, 0, 0, 2, 0, 0]"] ;
106 -> 108 ;
109 [label="gini = 0.0132\nsamples = 209341\nvalue = [207948, 753, 138, 147, 198, 99, 31, 27]"] ;
77 -> 109 ;
110 [label="SYS_CALL <= 90.0\ngini = 0.0173\nsamples = 2876\nvalue = [2851, 14, 1, 2, 4, 2, 1, 1]"] ;
76 -> 110 ;
111 [label="gini = 0.0\nsamples = 1\nvalue = [1, 0, 0, 0, 0, 0, 0, 0]"] ;
110 -> 111 ;
112 [label="gini = 0.0173\nsamples = 2875\nvalue = [2850, 14, 1, 2, 4, 2, 1, 1]"] ;
110 -> 112 ;
113 [label="gini = 0.0115\nsamples = 20925\nvalue = [20804, 59, 9, 11, 17, 20, 1, 4]"] ;
75 -> 113 ;
114 [label="gini = 0.0672\nsamples = 58\nvalue = [56, 1, 1, 0, 0, 0, 0, 0]"] ;
74 -> 114 ;
115 [label="PATH_/usr/lib/unity-settings-daemon/unity-settings-daemon <= 0.5\ngini = 0.015\nsamples = 131401\nvalue = [130410, 529, 93, 113, 90, 120, 29, 17]"] ;
73 -> 115 ;
116 [label="SYS_CALL <= 230.5\ngini = 0.0151\nsamples = 130799\nvalue = [129808, 529, 93, 113, 90, 120, 29, 17]"] ;
115 -> 116 ;
117 [label="SYS_CALL <= 121.0\ngini = 0.015\nsamples = 130197\nvalue = [129214, 525, 93, 113, 90, 116, 29, 17]"] ;
116 -> 117 ;
118 [label="SYS_CALL <= 118.5\ngini = 0.0169\nsamples = 22133\nvalue = [21945, 98, 15, 18, 23, 27, 3, 4]"] ;
117 -> 118 ;
119 [label="SYS_CALL <= 109.0\ngini = 0.0164\nsamples = 21476\nvalue = [21299, 91, 14, 18, 23, 25, 3, 3]"] ;
118 -> 119 ;
120 [label="gini = 0.0164\nsamples = 21472\nvalue = [21295, 91, 14, 18, 23, 25, 3, 3]"] ;
119 -> 120 ;
121 [label="gini = 0.0\nsamples = 4\nvalue = [4, 0, 0, 0, 0, 0, 0, 0]"] ;
119 -> 121 ;
122 [label="SYS_CALL <= 119.5\ngini = 0.0331\nsamples = 657\nvalue = [646, 7, 1, 0, 0, 2, 0, 1]"] ;
118 -> 122 ;
123 [label="PATH_/usr/bin/Xorg <= 0.5\ngini = 0.0315\nsamples = 627\nvalue = [617, 6, 1, 0, 0, 2, 0, 1]"] ;
122 -> 123 ;
124 [label="gini = 0.0\nsamples = 30\nvalue = [30, 0, 0, 0, 0, 0, 0, 0]"] ;
123 -> 124 ;
125 [label="gini = 0.0331\nsamples = 597\nvalue = [587, 6, 1, 0, 0, 2, 0, 1]"] ;
123 -> 125 ;
126 [label="PATH_/bin/bash <= 0.5\ngini = 0.0644\nsamples = 30\nvalue = [29, 1, 0, 0, 0, 0, 0, 0]"] ;
122 -> 126 ;
127 [label="gini = 0.0\nsamples = 11\nvalue = [11, 0, 0, 0, 0, 0, 0, 0]"] ;
126 -> 127 ;
128 [label="gini = 0.0997\nsamples = 19\nvalue = [18, 1, 0, 0, 0, 0, 0, 0]"] ;
126 -> 128 ;
129 [label="PATH_/usr/bin/python3.4 <= 0.5\ngini = 0.0146\nsamples = 108064\nvalue = [107269, 427, 78, 95, 67, 89, 26, 13]"] ;
117 -> 129 ;
130 [label="SYS_CALL <= 220.5\ngini = 0.0146\nsamples = 107393\nvalue = [106603, 427, 74, 94, 67, 89, 26, 13]"] ;
129 -> 130 ;
131 [label="SYS_CALL <= 144.0\ngini = 0.0146\nsamples = 107329\nvalue = [106541, 425, 74, 94, 67, 89, 26, 13]"] ;
130 -> 131 ;
132 [label="PATH_/sbin/auditctl <= 0.5\ngini = 0.013\nsamples = 17216\nvalue = [17104, 62, 16, 12, 6, 12, 3, 1]"] ;
131 -> 132 ;
133 [label="PATH_/usr/bin/Xorg <= 0.5\ngini = 0.0129\nsamples = 17145\nvalue = [17034, 62, 15, 12, 6, 12, 3, 1]"] ;
132 -> 133 ;
134 [label="PATH_/usr/sbin/apache2 <= 0.5\ngini = 0.0117\nsamples = 3569\nvalue = [3548, 14, 1, 3, 0, 2, 1, 0]"] ;
133 -> 134 ;
135 [label="gini = 0.0\nsamples = 66\nvalue = [66, 0, 0, 0, 0, 0, 0, 0]"] ;
134 -> 135 ;
136 [label="gini = 0.0119\nsamples = 3503\nvalue = [3482, 14, 1, 3, 0, 2, 1, 0]"] ;
134 -> 136 ;
137 [label="gini = 0.0132\nsamples = 13576\nvalue = [13486, 48, 14, 9, 6, 10, 2, 1]"] ;
133 -> 137 ;
138 [label="SYS_CALL <= 133.5\ngini = 0.0278\nsamples = 71\nvalue = [70, 0, 1, 0, 0, 0, 0, 0]"] ;
132 -> 138 ;
139 [label="SYS_CALL <= 123.5\ngini = 0.0303\nsamples = 65\nvalue = [64, 0, 1, 0, 0, 0, 0, 0]"] ;
138 -> 139 ;
140 [label="gini = 0.0\nsamples = 5\nvalue = [5, 0, 0, 0, 0, 0, 0, 0]"] ;
139 -> 140 ;
141 [label="gini = 0.0328\nsamples = 60\nvalue = [59, 0, 1, 0, 0, 0, 0, 0]"] ;
139 -> 141 ;
142 [label="gini = 0.0\nsamples = 6\nvalue = [6, 0, 0, 0, 0, 0, 0, 0]"] ;
138 -> 142 ;
143 [label="PATH_/usr/lib/i386-linux-gnu/gconf/gconfd-2 <= 0.5\ngini = 0.0149\nsamples = 90113\nvalue = [89437, 363, 58, 82, 61, 77, 23, 12]"] ;
131 -> 143 ;
144 [label="PATH_/usr/bin/zeitgeist-datahub <= 0.5\ngini = 0.0149\nsamples = 90061\nvalue = [89386, 362, 58, 82, 61, 77, 23, 12]"] ;
143 -> 144 ;
145 [label="PATH_/bin/fuser <= 0.5\ngini = 0.0149\nsamples = 89191\nvalue = [88525, 356, 56, 82, 60, 77, 23, 12]"] ;
144 -> 145 ;
146 [label="PATH_/usr/lib/rtkit/rtkit-daemon <= 0.5\ngini = 0.0149\nsamples = 88992\nvalue = [88326, 356, 56, 82, 60, 77, 23, 12]"] ;
145 -> 146 ;
147 [label="PATH_/usr/bin/gnome-terminal <= 0.5\ngini = 0.0148\nsamples = 88034\nvalue = [87378, 352, 54, 81, 60, 75, 22, 12]"] ;
146 -> 147 ;
148 [label="SYS_CALL <= 187.0\ngini = 0.0148\nsamples = 85745\nvalue = [85108, 346, 52, 78, 55, 72, 22, 12]"] ;
147 -> 148 ;
149 [label="SYS_CALL <= 177.5\ngini = 0.0146\nsamples = 79148\nvalue = [78567, 318, 46, 70, 53, 64, 21, 9]"] ;
148 -> 149 ;
150 [label="PATH_/usr/bin/Xorg <= 0.5\ngini = 0.0147\nsamples = 78883\nvalue = [78302, 318, 46, 70, 53, 64, 21, 9]"] ;
149 -> 150 ;
151 [label="PATH_/usr/bin/compiz <= 0.5\ngini = 0.0143\nsamples = 56617\nvalue = [56211, 220, 33, 48, 37, 50, 13, 5]"] ;
150 -> 151 ;
152 [label="SYS_CALL <= 154.0\ngini = 0.0113\nsamples = 5463\nvalue = [5432, 20, 1, 3, 1, 4, 2, 0]"] ;
151 -> 152 ;
153 [label="PATH_/usr/bin/nautilus <= 0.5\ngini = 0.0163\nsamples = 612\nvalue = [607, 2, 1, 1, 0, 1, 0, 0]"] ;
152 -> 153 ;
154 [label="gini = 0.0\nsamples = 9\nvalue = [9, 0, 0, 0, 0, 0, 0, 0]"] ;
153 -> 154 ;
155 [label="gini = 0.0165\nsamples = 603\nvalue = [598, 2, 1, 1, 0, 1, 0, 0]"] ;
153 -> 155 ;
156 [label="PATH_/usr/lib/i386-linux-gnu/unity-scope-home/unity-scope-home <= 0.5\ngini = 0.0107\nsamples = 4851\nvalue = [4825, 18, 0, 2, 1, 3, 2, 0]"] ;
152 -> 156 ;
157 [label="PATH_/bin/bash <= 0.5\ngini = 0.011\nsamples = 4707\nvalue = [4681, 18, 0, 2, 1, 3, 2, 0]"] ;
156 -> 157 ;
158 [label="PATH_/usr/bin/unity-scope-loader <= 0.5\ngini = 0.0108\nsamples = 4431\nvalue = [4407, 16, 0, 2, 1, 3, 2, 0]"] ;
157 -> 158 ;
159 [label="PATH_/usr/bin/ibus-daemon <= 0.5\ngini = 0.0107\nsamples = 3530\nvalue = [3511, 11, 0, 2, 1, 3, 2, 0]"] ;
158 -> 159 ;
160 [label="PATH_/usr/bin/nautilus <= 0.5\ngini = 0.0105\nsamples = 3417\nvalue = [3399, 10, 0, 2, 1, 3, 2, 0]"] ;
159 -> 160 ;
161 [label="PATH_/usr/lib/i386-linux-gnu/zeitgeist-fts <= 0.5\ngini = 0.0087\nsamples = 1148\nvalue = [1143, 3, 0, 1, 0, 1, 0, 0]"] ;
160 -> 161 ;
162 [label="gini = 0.0\nsamples = 233\nvalue = [233, 0, 0, 0, 0, 0, 0, 0]"] ;
161 -> 162 ;
163 [label="gini = 0.0109\nsamples = 915\nvalue = [910, 3, 0, 1, 0, 1, 0, 0]"] ;
161 -> 163 ;
164 [label="gini = 0.0114\nsamples = 2269\nvalue = [2256, 7, 0, 1, 1, 2, 2, 0]"] ;
160 -> 164 ;
165 [label="gini = 0.0175\nsamples = 113\nvalue = [112, 1, 0, 0, 0, 0, 0, 0]"] ;
159 -> 165 ;
166 [label="gini = 0.011\nsamples = 901\nvalue = [896, 5, 0, 0, 0, 0, 0, 0]"] ;
158 -> 166 ;
167 [label="SYS_CALL <= 174.5\ngini = 0.0144\nsamples = 276\nvalue = [274, 2, 0, 0, 0, 0, 0, 0]"] ;
157 -> 167 ;
168 [label="gini = 0.0138\nsamples = 144\nvalue = [143, 1, 0, 0, 0, 0, 0, 0]"] ;
167 -> 168 ;
169 [label="gini = 0.015\nsamples = 132\nvalue = [131, 1, 0, 0, 0, 0, 0, 0]"] ;
167 -> 169 ;
170 [label="gini = 0.0\nsamples = 144\nvalue = [144, 0, 0, 0, 0, 0, 0, 0]"] ;
156 -> 170 ;
171 [label="SYS_CALL <= 157.0\ngini = 0.0146\nsamples = 51154\nvalue = [50779, 200, 32, 45, 36, 46, 11, 5]"] ;
151 -> 171 ;
172 [label="gini = 0.0144\nsamples = 12038\nvalue = [11951, 43, 8, 12, 9, 9, 5, 1]"] ;
171 -> 172 ;
173 [label="SYS_CALL <= 171.0\ngini = 0.0147\nsamples = 39116\nvalue = [38828, 157, 24, 33, 27, 37, 6, 4]"] ;
171 -> 173 ;
174 [label="gini = 0.0147\nsamples = 39115\nvalue = [38827, 157, 24, 33, 27, 37, 6, 4]"] ;
173 -> 174 ;
175 [label="gini = 0.0\nsamples = 1\nvalue = [1, 0, 0, 0, 0, 0, 0, 0]"] ;
173 -> 175 ;
176 [label="SYS_CALL <= 160.5\ngini = 0.0156\nsamples = 22266\nvalue = [22091, 98, 13, 22, 16, 14, 8, 4]"] ;
150 -> 176 ;
177 [label="gini = 0.0156\nsamples = 22254\nvalue = [22079, 98, 13, 22, 16, 14, 8, 4]"] ;
176 -> 177 ;
178 [label="gini = 0.0\nsamples = 12\nvalue = [12, 0, 0, 0, 0, 0, 0, 0]"] ;
176 -> 178 ;
179 [label="gini = 0.0\nsamples = 265\nvalue = [265, 0, 0, 0, 0, 0, 0, 0]"] ;
149 -> 179 ;
180 [label="SYS_CALL <= 191.5\ngini = 0.0169\nsamples = 6597\nvalue = [6541, 28, 6, 8, 2, 8, 1, 3]"] ;
148 -> 180 ;
181 [label="gini = 0.074\nsamples = 26\nvalue = [25, 1, 0, 0, 0, 0, 0, 0]"] ;
180 -> 181 ;
182 [label="PATH_/usr/lib/i386-linux-gnu/unity-scope-home/unity-scope-home <= 0.5\ngini = 0.0166\nsamples = 6571\nvalue = [6516, 27, 6, 8, 2, 8, 1, 3]"] ;
180 -> 182 ;
183 [label="SYS_CALL <= 195.5\ngini = 0.0165\nsamples = 6521\nvalue = [6467, 26, 6, 8, 2, 8, 1, 3]"] ;
182 -> 183 ;
184 [label="PATH_/bin/sleep <= 0.5\ngini = 0.0169\nsamples = 6342\nvalue = [6288, 26, 6, 8, 2, 8, 1, 3]"] ;
183 -> 184 ;
185 [label="PATH_/usr/bin/python2.7 <= 0.5\ngini = 0.0168\nsamples = 6292\nvalue = [6239, 25, 6, 8, 2, 8, 1, 3]"] ;
184 -> 185 ;
186 [label="PATH_/usr/bin/compiz <= 0.5\ngini = 0.0165\nsamples = 6131\nvalue = [6080, 23, 6, 8, 2, 8, 1, 3]"] ;
185 -> 186 ;
187 [label="PATH_/sbin/auditctl <= 0.5\ngini = 0.0081\nsamples = 247\nvalue = [246, 1, 0, 0, 0, 0, 0, 0]"] ;
186 -> 187 ;
188 [label="gini = 0.0\nsamples = 96\nvalue = [96, 0, 0, 0, 0, 0, 0, 0]"] ;
187 -> 188 ;
189 [label="gini = 0.0132\nsamples = 151\nvalue = [150, 1, 0, 0, 0, 0, 0, 0]"] ;
187 -> 189 ;
190 [label="SYS_CALL <= 193.5\ngini = 0.0169\nsamples = 5884\nvalue = [5834, 22, 6, 8, 2, 8, 1, 3]"] ;
186 -> 190 ;
191 [label="gini = 0.0169\nsamples = 5881\nvalue = [5831, 22, 6, 8, 2, 8, 1, 3]"] ;
190 -> 191 ;
192 [label="gini = 0.0\nsamples = 3\nvalue = [3, 0, 0, 0, 0, 0, 0, 0]"] ;
190 -> 192 ;
193 [label="SYS_CALL <= 193.5\ngini = 0.0245\nsamples = 161\nvalue = [159, 2, 0, 0, 0, 0, 0, 0]"] ;
185 -> 193 ;
194 [label="gini = 0.0\nsamples = 1\nvalue = [1, 0, 0, 0, 0, 0, 0, 0]"] ;
193 -> 194 ;
195 [label="gini = 0.0247\nsamples = 160\nvalue = [158, 2, 0, 0, 0, 0, 0, 0]"] ;
193 -> 195 ;
196 [label="gini = 0.0392\nsamples = 50\nvalue = [49, 1, 0, 0, 0, 0, 0, 0]"] ;
184 -> 196 ;
197 [label="gini = 0.0\nsamples = 179\nvalue = [179, 0, 0, 0, 0, 0, 0, 0]"] ;
183 -> 197 ;
198 [label="SYS_CALL <= 196.0\ngini = 0.0392\nsamples = 50\nvalue = [49, 1, 0, 0, 0, 0, 0, 0]"] ;
182 -> 198 ;
199 [label="gini = 0.0\nsamples = 23\nvalue = [23, 0, 0, 0, 0, 0, 0, 0]"] ;
198 -> 199 ;
200 [label="SYS_CALL <= 199.0\ngini = 0.0713\nsamples = 27\nvalue = [26, 1, 0, 0, 0, 0, 0, 0]"] ;
198 -> 200 ;
201 [label="gini = 0.1653\nsamples = 11\nvalue = [10, 1, 0, 0, 0, 0, 0, 0]"] ;
200 -> 201 ;
202 [label="gini = 0.0\nsamples = 16\nvalue = [16, 0, 0, 0, 0, 0, 0, 0]"] ;
200 -> 202 ;
203 [label="SYS_CALL <= 157.0\ngini = 0.0165\nsamples = 2289\nvalue = [2270, 6, 2, 3, 5, 3, 0, 0]"] ;
147 -> 203 ;
204 [label="gini = 0.0133\nsamples = 751\nvalue = [746, 1, 1, 1, 1, 1, 0, 0]"] ;
203 -> 204 ;
205 [label="gini = 0.0181\nsamples = 1538\nvalue = [1524, 5, 1, 2, 4, 2, 0, 0]"] ;
203 -> 205 ;
206 [label="gini = 0.0207\nsamples = 958\nvalue = [948, 4, 2, 1, 0, 2, 1, 0]"] ;
146 -> 206 ;
207 [label="gini = 0.0\nsamples = 199\nvalue = [199, 0, 0, 0, 0, 0, 0, 0]"] ;
145 -> 207 ;
208 [label="gini = 0.0205\nsamples = 870\nvalue = [861, 6, 2, 0, 1, 0, 0, 0]"] ;
144 -> 208 ;
209 [label="gini = 0.0377\nsamples = 52\nvalue = [51, 1, 0, 0, 0, 0, 0, 0]"] ;
143 -> 209 ;
210 [label="PATH_/usr/bin/python2.7 <= 0.5\ngini = 0.0605\nsamples = 64\nvalue = [62, 2, 0, 0, 0, 0, 0, 0]"] ;
130 -> 210 ;
211 [label="gini = 0.0\nsamples = 37\nvalue = [37, 0, 0, 0, 0, 0, 0, 0]"] ;
210 -> 211 ;
212 [label="gini = 0.1372\nsamples = 27\nvalue = [25, 2, 0, 0, 0, 0, 0, 0]"] ;
210 -> 212 ;
213 [label="SYS_CALL <= 191.5\ngini = 0.0148\nsamples = 671\nvalue = [666, 0, 4, 1, 0, 0, 0, 0]"] ;
129 -> 213 ;
214 [label="SYS_CALL <= 182.5\ngini = 0.026\nsamples = 305\nvalue = [301, 0, 3, 1, 0, 0, 0, 0]"] ;
213 -> 214 ;
215 [label="SYS_CALL <= 157.0\ngini = 0.0179\nsamples = 111\nvalue = [110, 0, 0, 1, 0, 0, 0, 0]"] ;
214 -> 215 ;
216 [label="SYS_CALL <= 132.5\ngini = 0.019\nsamples = 104\nvalue = [103, 0, 0, 1, 0, 0, 0, 0]"] ;
215 -> 216 ;
217 [label="gini = 0.0\nsamples = 3\nvalue = [3, 0, 0, 0, 0, 0, 0, 0]"] ;
216 -> 217 ;
218 [label="gini = 0.0196\nsamples = 101\nvalue = [100, 0, 0, 1, 0, 0, 0, 0]"] ;
216 -> 218 ;
219 [label="gini = 0.0\nsamples = 7\nvalue = [7, 0, 0, 0, 0, 0, 0, 0]"] ;
215 -> 219 ;
220 [label="gini = 0.0304\nsamples = 194\nvalue = [191, 0, 3, 0, 0, 0, 0, 0]"] ;
214 -> 220 ;
221 [label="SYS_CALL <= 220.5\ngini = 0.0054\nsamples = 366\nvalue = [365, 0, 1, 0, 0, 0, 0, 0]"] ;
213 -> 221 ;
222 [label="gini = 0.0\nsamples = 165\nvalue = [165, 0, 0, 0, 0, 0, 0, 0]"] ;
221 -> 222 ;
223 [label="gini = 0.0099\nsamples = 201\nvalue = [200, 0, 1, 0, 0, 0, 0, 0]"] ;
221 -> 223 ;
224 [label="PATH_/usr/bin/gnome-terminal <= 0.5\ngini = 0.0263\nsamples = 602\nvalue = [594, 4, 0, 0, 0, 4, 0, 0]"] ;
116 -> 224 ;
225 [label="PATH_/usr/lib/i386-linux-gnu/unity-scope-home/unity-scope-home <= 0.5\ngini = 0.0236\nsamples = 588\nvalue = [581, 3, 0, 0, 0, 4, 0, 0]"] ;
224 -> 225 ;
226 [label="PATH_/usr/bin/compiz <= 0.5\ngini = 0.0209\nsamples = 569\nvalue = [563, 3, 0, 0, 0, 3, 0, 0]"] ;
225 -> 226 ;
227 [label="gini = 0.0\nsamples = 85\nvalue = [85, 0, 0, 0, 0, 0, 0, 0]"] ;
226 -> 227 ;
228 [label="gini = 0.0246\nsamples = 484\nvalue = [478, 3, 0, 0, 0, 3, 0, 0]"] ;
226 -> 228 ;
229 [label="gini = 0.0997\nsamples = 19\nvalue = [18, 0, 0, 0, 0, 1, 0, 0]"] ;
225 -> 229 ;
230 [label="gini = 0.1327\nsamples = 14\nvalue = [13, 1, 0, 0, 0, 0, 0, 0]"] ;
224 -> 230 ;
231 [label="gini = 0.0\nsamples = 602\nvalue = [602, 0, 0, 0, 0, 0, 0, 0]"] ;
115 -> 231 ;
232 [label="PATH_/usr/lib/unity-settings-daemon/unity-settings-daemon <= 0.5\ngini = 0.0131\nsamples = 335856\nvalue = [333638, 1182, 203, 235, 320, 182, 59, 37]"] ;
72 -> 232 ;
233 [label="PATH_/usr/bin/zeitgeist-datahub <= 0.5\ngini = 0.0131\nsamples = 335437\nvalue = [333224, 1177, 203, 235, 320, 182, 59, 37]"] ;
232 -> 233 ;
234 [label="PATH_/usr/bin/Xorg <= 0.5\ngini = 0.0131\nsamples = 330894\nvalue = [328718, 1161, 200, 228, 312, 182, 57, 36]"] ;
233 -> 234 ;
235 [label="SYS_CALL <= 266.5\ngini = 0.0131\nsamples = 273231\nvalue = [271427, 968, 168, 192, 272, 134, 44, 26]"] ;
234 -> 235 ;
236 [label="PATH_/usr/lib/i386-linux-gnu/unity-scope-home/unity-scope-home <= 0.5\ngini = 0.0132\nsamples = 259776\nvalue = [258051, 921, 163, 182, 260, 134, 41, 24]"] ;
235 -> 236 ;
237 [label="PATH_/usr/bin/unity-scope-loader <= 0.5\ngini = 0.0132\nsamples = 259639\nvalue = [257916, 920, 163, 182, 260, 133, 41, 24]"] ;
236 -> 237 ;
238 [label="PATH_/usr/lib/rtkit/rtkit-daemon <= 0.5\ngini = 0.0132\nsamples = 257869\nvalue = [256154, 916, 163, 182, 258, 133, 40, 23]"] ;
237 -> 238 ;
239 [label="PATH_/sbin/auditd <= 0.5\ngini = 0.0132\nsamples = 256891\nvalue = [255184, 913, 163, 181, 257, 130, 40, 23]"] ;
238 -> 239 ;
240 [label="SYS_CALL <= 260.5\ngini = 0.0132\nsamples = 256713\nvalue = [255007, 913, 163, 181, 257, 130, 39, 23]"] ;
239 -> 240 ;
241 [label="PATH_/usr/sbin/apache2 <= 0.5\ngini = 0.0132\nsamples = 69606\nvalue = [69145, 239, 47, 36, 79, 40, 12, 8]"] ;
240 -> 241 ;
242 [label="gini = 0.0\nsamples = 59\nvalue = [59, 0, 0, 0, 0, 0, 0, 0]"] ;
241 -> 242 ;
243 [label="gini = 0.0132\nsamples = 69547\nvalue = [69086, 239, 47, 36, 79, 40, 12, 8]"] ;
241 -> 243 ;
244 [label="PATH_/usr/lib/i386-linux-gnu/gconf/gconfd-2 <= 0.5\ngini = 0.0132\nsamples = 187107\nvalue = [185862, 674, 116, 145, 178, 90, 27, 15]"] ;
240 -> 244 ;
245 [label="PATH_/usr/bin/gnome-terminal <= 0.5\ngini = 0.0133\nsamples = 186995\nvalue = [185750, 674, 116, 145, 178, 90, 27, 15]"] ;
244 -> 245 ;
246 [label="PATH_/usr/lib/i386-linux-gnu/zeitgeist-fts <= 0.5\ngini = 0.0133\nsamples = 185392\nvalue = [184157, 670, 116, 144, 176, 87, 27, 15]"] ;
245 -> 246 ;
247 [label="PATH_/usr/lib/accountsservice/accounts-daemon <= 0.5\ngini = 0.0133\nsamples = 183576\nvalue = [182353, 665, 115, 140, 174, 87, 27, 15]"] ;
246 -> 247 ;
248 [label="PATH_/usr/bin/nautilus <= 0.5\ngini = 0.0133\nsamples = 183532\nvalue = [182309, 665, 115, 140, 174, 87, 27, 15]"] ;
247 -> 248 ;
249 [label="PATH_/usr/bin/compiz <= 0.5\ngini = 0.0133\nsamples = 180480\nvalue = [179278, 652, 112, 138, 172, 86, 27, 15]"] ;
248 -> 249 ;
250 [label="gini = 0.0\nsamples = 107\nvalue = [107, 0, 0, 0, 0, 0, 0, 0]"] ;
249 -> 250 ;
251 [label="gini = 0.0133\nsamples = 180373\nvalue = [179171, 652, 112, 138, 172, 86, 27, 15]"] ;
249 -> 251 ;
252 [label="gini = 0.0137\nsamples = 3052\nvalue = [3031, 13, 3, 2, 2, 1, 0, 0]"] ;
248 -> 252 ;
253 [label="gini = 0.0\nsamples = 44\nvalue = [44, 0, 0, 0, 0, 0, 0, 0]"] ;
247 -> 253 ;
254 [label="gini = 0.0132\nsamples = 1816\nvalue = [1804, 5, 1, 4, 2, 0, 0, 0]"] ;
246 -> 254 ;
255 [label="gini = 0.0124\nsamples = 1603\nvalue = [1593, 4, 0, 1, 2, 3, 0, 0]"] ;
245 -> 255 ;
256 [label="gini = 0.0\nsamples = 112\nvalue = [112, 0, 0, 0, 0, 0, 0, 0]"] ;
244 -> 256 ;
257 [label="SYS_CALL <= 260.5\ngini = 0.0112\nsamples = 178\nvalue = [177, 0, 0, 0, 0, 0, 1, 0]"] ;
239 -> 257 ;
258 [label="gini = 0.0\nsamples = 48\nvalue = [48, 0, 0, 0, 0, 0, 0, 0]"] ;
257 -> 258 ;
259 [label="gini = 0.0153\nsamples = 130\nvalue = [129, 0, 0, 0, 0, 0, 1, 0]"] ;
257 -> 259 ;
260 [label="gini = 0.0163\nsamples = 978\nvalue = [970, 3, 0, 1, 1, 3, 0, 0]"] ;
238 -> 260 ;
261 [label="gini = 0.009\nsamples = 1770\nvalue = [1762, 4, 0, 0, 2, 0, 1, 1]"] ;
237 -> 261 ;
262 [label="gini = 0.0289\nsamples = 137\nvalue = [135, 1, 0, 0, 0, 1, 0, 0]"] ;
236 -> 262 ;
263 [label="PATH_/usr/bin/unity-scope-loader <= 0.5\ngini = 0.0117\nsamples = 13455\nvalue = [13376, 47, 5, 10, 12, 0, 3, 2]"] ;
235 -> 263 ;
264 [label="PATH_/usr/bin/nautilus <= 0.5\ngini = 0.0089\nsamples = 5356\nvalue = [5332, 12, 3, 3, 5, 0, 1, 0]"] ;
263 -> 264 ;
265 [label="PATH_/usr/lib/i386-linux-gnu/zeitgeist-fts <= 0.5\ngini = 0.0073\nsamples = 3554\nvalue = [3541, 8, 0, 1, 3, 0, 1, 0]"] ;
264 -> 265 ;
266 [label="PATH_/usr/bin/compiz <= 0.5\ngini = 0.0066\nsamples = 1808\nvalue = [1802, 3, 0, 1, 2, 0, 0, 0]"] ;
265 -> 266 ;
267 [label="gini = 0.0\nsamples = 63\nvalue = [63, 0, 0, 0, 0, 0, 0, 0]"] ;
266 -> 267 ;
268 [label="gini = 0.0069\nsamples = 1745\nvalue = [1739, 3, 0, 1, 2, 0, 0, 0]"] ;
266 -> 268 ;
269 [label="gini = 0.008\nsamples = 1746\nvalue = [1739, 5, 0, 0, 1, 0, 1, 0]"] ;
265 -> 269 ;
270 [label="gini = 0.0122\nsamples = 1802\nvalue = [1791, 4, 3, 2, 2, 0, 0, 0]"] ;
264 -> 270 ;
271 [label="gini = 0.0135\nsamples = 8099\nvalue = [8044, 35, 2, 7, 7, 0, 2, 2]"] ;
263 -> 271 ;
272 [label="gini = 0.0128\nsamples = 57663\nvalue = [57291, 193, 32, 36, 40, 48, 13, 10]"] ;
234 -> 272 ;
273 [label="SYS_CALL <= 278.5\ngini = 0.0162\nsamples = 4543\nvalue = [4506, 16, 3, 7, 8, 0, 2, 1]"] ;
233 -> 273 ;
274 [label="gini = 0.0168\nsamples = 1897\nvalue = [1881, 7, 2, 2, 3, 0, 1, 1]"] ;
273 -> 274 ;
275 [label="gini = 0.0158\nsamples = 2646\nvalue = [2625, 9, 1, 5, 5, 0, 1, 0]"] ;
273 -> 275 ;
276 [label="gini = 0.0236\nsamples = 419\nvalue = [414, 5, 0, 0, 0, 0, 0, 0]"] ;
232 -> 276 ;
277 [label="SYS_CALL <= 141.5\ngini = 0.0666\nsamples = 29\nvalue = [28, 1, 0, 0, 0, 0, 0, 0]"] ;
55 -> 277 ;
278 [label="gini = 0.2778\nsamples = 6\nvalue = [5, 1, 0, 0, 0, 0, 0, 0]"] ;
277 -> 278 ;
279 [label="gini = 0.0\nsamples = 23\nvalue = [23, 0, 0, 0, 0, 0, 0, 0]"] ;
277 -> 279 ;
280 [label="gini = 0.0\nsamples = 633\nvalue = [633, 0, 0, 0, 0, 0, 0, 0]"] ;
10 -> 280 ;
281 [label="SYS_CALL <= 191.5\ngini = 0.0236\nsamples = 1176\nvalue = [1162, 11, 3, 0, 0, 0, 0, 0]"] ;
9 -> 281 ;
282 [label="SYS_CALL <= 182.5\ngini = 0.0325\nsamples = 607\nvalue = [597, 7, 3, 0, 0, 0, 0, 0]"] ;
281 -> 282 ;
283 [label="gini = 0.0\nsamples = 77\nvalue = [77, 0, 0, 0, 0, 0, 0, 0]"] ;
282 -> 283 ;
284 [label="gini = 0.0372\nsamples = 530\nvalue = [520, 7, 3, 0, 0, 0, 0, 0]"] ;
282 -> 284 ;
285 [label="SYS_CALL <= 220.5\ngini = 0.014\nsamples = 569\nvalue = [565, 4, 0, 0, 0, 0, 0, 0]"] ;
281 -> 285 ;
286 [label="gini = 0.0\nsamples = 30\nvalue = [30, 0, 0, 0, 0, 0, 0, 0]"] ;
285 -> 286 ;
287 [label="SYS_CALL <= 258.0\ngini = 0.0147\nsamples = 539\nvalue = [535, 4, 0, 0, 0, 0, 0, 0]"] ;
285 -> 287 ;
288 [label="gini = 0.0148\nsamples = 535\nvalue = [531, 4, 0, 0, 0, 0, 0, 0]"] ;
287 -> 288 ;
289 [label="gini = 0.0\nsamples = 4\nvalue = [4, 0, 0, 0, 0, 0, 0, 0]"] ;
287 -> 289 ;
290 [label="SYS_CALL <= 122.0\ngini = 0.0245\nsamples = 1618\nvalue = [1598, 10, 0, 1, 0, 9, 0, 0]"] ;
8 -> 290 ;
291 [label="SYS_CALL <= 53.0\ngini = 0.0223\nsamples = 1067\nvalue = [1055, 9, 0, 0, 0, 3, 0, 0]"] ;
290 -> 291 ;
292 [label="SYS_CALL <= 3.5\ngini = 0.0171\nsamples = 696\nvalue = [690, 5, 0, 0, 0, 1, 0, 0]"] ;
291 -> 292 ;
293 [label="gini = 0.0175\nsamples = 453\nvalue = [449, 3, 0, 0, 0, 1, 0, 0]"] ;
292 -> 293 ;
294 [label="gini = 0.0163\nsamples = 243\nvalue = [241, 2, 0, 0, 0, 0, 0, 0]"] ;
292 -> 294 ;
295 [label="gini = 0.0319\nsamples = 371\nvalue = [365, 4, 0, 0, 0, 2, 0, 0]"] ;
291 -> 295 ;
296 [label="SYS_CALL <= 274.5\ngini = 0.0287\nsamples = 551\nvalue = [543, 1, 0, 1, 0, 6, 0, 0]"] ;
290 -> 296 ;
297 [label="SYS_CALL <= 203.5\ngini = 0.0414\nsamples = 380\nvalue = [372, 1, 0, 1, 0, 6, 0, 0]"] ;
296 -> 297 ;
298 [label="gini = 0.0524\nsamples = 187\nvalue = [182, 1, 0, 1, 0, 3, 0, 0]"] ;
297 -> 298 ;
299 [label="gini = 0.0306\nsamples = 193\nvalue = [190, 0, 0, 0, 0, 3, 0, 0]"] ;
297 -> 299 ;
300 [label="gini = 0.0\nsamples = 171\nvalue = [171, 0, 0, 0, 0, 0, 0, 0]"] ;
296 -> 300 ;
301 [label="SYS_CALL <= 3.5\ngini = 0.0378\nsamples = 1044\nvalue = [1024, 11, 2, 0, 0, 6, 0, 1]"] ;
7 -> 301 ;
302 [label="SYS_CALL <= 2.0\ngini = 0.0677\nsamples = 57\nvalue = [55, 2, 0, 0, 0, 0, 0, 0]"] ;
301 -> 302 ;
303 [label="gini = 0.0\nsamples = 5\nvalue = [5, 0, 0, 0, 0, 0, 0, 0]"] ;
302 -> 303 ;
304 [label="gini = 0.074\nsamples = 52\nvalue = [50, 2, 0, 0, 0, 0, 0, 0]"] ;
302 -> 304 ;
305 [label="SYS_CALL <= 81.5\ngini = 0.036\nsamples = 987\nvalue = [969, 9, 2, 0, 0, 6, 0, 1]"] ;
301 -> 305 ;
306 [label="SYS_CALL <= 9.5\ngini = 0.0153\nsamples = 130\nvalue = [129, 0, 0, 0, 0, 1, 0, 0]"] ;
305 -> 306 ;
307 [label="SYS_CALL <= 5.5\ngini = 0.0282\nsamples = 70\nvalue = [69, 0, 0, 0, 0, 1, 0, 0]"] ;
306 -> 307 ;
308 [label="gini = 0.0\nsamples = 38\nvalue = [38, 0, 0, 0, 0, 0, 0, 0]"] ;
307 -> 308 ;
309 [label="gini = 0.0605\nsamples = 32\nvalue = [31, 0, 0, 0, 0, 1, 0, 0]"] ;
307 -> 309 ;
310 [label="gini = 0.0\nsamples = 60\nvalue = [60, 0, 0, 0, 0, 0, 0, 0]"] ;
306 -> 310 ;
311 [label="SYS_CALL <= 170.0\ngini = 0.0391\nsamples = 857\nvalue = [840, 9, 2, 0, 0, 5, 0, 1]"] ;
305 -> 311 ;
312 [label="SYS_CALL <= 88.0\ngini = 0.0665\nsamples = 146\nvalue = [141, 4, 0, 0, 0, 0, 0, 1]"] ;
311 -> 312 ;
313 [label="gini = 0.0423\nsamples = 93\nvalue = [91, 1, 0, 0, 0, 0, 0, 1]"] ;
312 -> 313 ;
314 [label="SYS_CALL <= 111.0\ngini = 0.1068\nsamples = 53\nvalue = [50, 3, 0, 0, 0, 0, 0, 0]"] ;
312 -> 314 ;
315 [label="SYS_CALL <= 96.5\ngini = 0.142\nsamples = 26\nvalue = [24, 2, 0, 0, 0, 0, 0, 0]"] ;
314 -> 315 ;
316 [label="gini = 0.1172\nsamples = 16\nvalue = [15, 1, 0, 0, 0, 0, 0, 0]"] ;
315 -> 316 ;
317 [label="gini = 0.18\nsamples = 10\nvalue = [9, 1, 0, 0, 0, 0, 0, 0]"] ;
315 -> 317 ;
318 [label="SYS_CALL <= 146.5\ngini = 0.0713\nsamples = 27\nvalue = [26, 1, 0, 0, 0, 0, 0, 0]"] ;
314 -> 318 ;
319 [label="gini = 0.0\nsamples = 6\nvalue = [6, 0, 0, 0, 0, 0, 0, 0]"] ;
318 -> 319 ;
320 [label="gini = 0.0907\nsamples = 21\nvalue = [20, 1, 0, 0, 0, 0, 0, 0]"] ;
318 -> 320 ;
321 [label="SYS_CALL <= 193.5\ngini = 0.0334\nsamples = 711\nvalue = [699, 5, 2, 0, 0, 5, 0, 0]"] ;
311 -> 321 ;
322 [label="SYS_CALL <= 182.0\ngini = 0.0868\nsamples = 22\nvalue = [21, 0, 0, 0, 0, 1, 0, 0]"] ;
321 -> 322 ;
323 [label="gini = 0.0\nsamples = 4\nvalue = [4, 0, 0, 0, 0, 0, 0, 0]"] ;
322 -> 323 ;
324 [label="gini = 0.1049\nsamples = 18\nvalue = [17, 0, 0, 0, 0, 1, 0, 0]"] ;
322 -> 324 ;
325 [label="SYS_CALL <= 196.0\ngini = 0.0316\nsamples = 689\nvalue = [678, 5, 2, 0, 0, 4, 0, 0]"] ;
321 -> 325 ;
326 [label="gini = 0.0\nsamples = 73\nvalue = [73, 0, 0, 0, 0, 0, 0, 0]"] ;
325 -> 326 ;
327 [label="SYS_CALL <= 208.0\ngini = 0.0353\nsamples = 616\nvalue = [605, 5, 2, 0, 0, 4, 0, 0]"] ;
325 -> 327 ;
328 [label="gini = 0.0799\nsamples = 24\nvalue = [23, 1, 0, 0, 0, 0, 0, 0]"] ;
327 -> 328 ;
329 [label="SYS_CALL <= 221.5\ngini = 0.0334\nsamples = 592\nvalue = [582, 4, 2, 0, 0, 4, 0, 0]"] ;
327 -> 329 ;
330 [label="gini = 0.0366\nsamples = 486\nvalue = [477, 3, 2, 0, 0, 4, 0, 0]"] ;
329 -> 330 ;
331 [label="SYS_CALL <= 252.5\ngini = 0.0187\nsamples = 106\nvalue = [105, 1, 0, 0, 0, 0, 0, 0]"] ;
329 -> 331 ;
332 [label="gini = 0.0\nsamples = 42\nvalue = [42, 0, 0, 0, 0, 0, 0, 0]"] ;
331 -> 332 ;
333 [label="SYS_CALL <= 288.0\ngini = 0.0308\nsamples = 64\nvalue = [63, 1, 0, 0, 0, 0, 0, 0]"] ;
331 -> 333 ;
334 [label="gini = 0.0328\nsamples = 60\nvalue = [59, 1, 0, 0, 0, 0, 0, 0]"] ;
333 -> 334 ;
335 [label="gini = 0.0\nsamples = 4\nvalue = [4, 0, 0, 0, 0, 0, 0, 0]"] ;
333 -> 335 ;
336 [label="SYS_CALL <= 5.5\ngini = 0.0409\nsamples = 623\nvalue = [610, 13, 0, 0, 0, 0, 0, 0]"] ;
6 -> 336 ;
337 [label="gini = 0.0\nsamples = 64\nvalue = [64, 0, 0, 0, 0, 0, 0, 0]"] ;
336 -> 337 ;
338 [label="SYS_CALL <= 19.5\ngini = 0.0454\nsamples = 559\nvalue = [546, 13, 0, 0, 0, 0, 0, 0]"] ;
336 -> 338 ;
339 [label="gini = 0.2449\nsamples = 7\nvalue = [6, 1, 0, 0, 0, 0, 0, 0]"] ;
338 -> 339 ;
340 [label="SYS_CALL <= 182.5\ngini = 0.0425\nsamples = 552\nvalue = [540, 12, 0, 0, 0, 0, 0, 0]"] ;
338 -> 340 ;
341 [label="gini = 0.0\nsamples = 16\nvalue = [16, 0, 0, 0, 0, 0, 0, 0]"] ;
340 -> 341 ;
342 [label="SYS_CALL <= 193.5\ngini = 0.0438\nsamples = 536\nvalue = [524, 12, 0, 0, 0, 0, 0, 0]"] ;
340 -> 342 ;
343 [label="SYS_CALL <= 191.5\ngini = 0.0392\nsamples = 250\nvalue = [245, 5, 0, 0, 0, 0, 0, 0]"] ;
342 -> 343 ;
344 [label="gini = 0.0395\nsamples = 248\nvalue = [243, 5, 0, 0, 0, 0, 0, 0]"] ;
343 -> 344 ;
345 [label="gini = 0.0\nsamples = 2\nvalue = [2, 0, 0, 0, 0, 0, 0, 0]"] ;
343 -> 345 ;
346 [label="SYS_CALL <= 196.0\ngini = 0.0478\nsamples = 286\nvalue = [279, 7, 0, 0, 0, 0, 0, 0]"] ;
342 -> 346 ;
347 [label="gini = 0.1172\nsamples = 16\nvalue = [15, 1, 0, 0, 0, 0, 0, 0]"] ;
346 -> 347 ;
348 [label="SYS_CALL <= 209.0\ngini = 0.0435\nsamples = 270\nvalue = [264, 6, 0, 0, 0, 0, 0, 0]"] ;
346 -> 348 ;
349 [label="gini = 0.0\nsamples = 3\nvalue = [3, 0, 0, 0, 0, 0, 0, 0]"] ;
348 -> 349 ;
350 [label="gini = 0.0439\nsamples = 267\nvalue = [261, 6, 0, 0, 0, 0, 0, 0]"] ;
348 -> 350 ;
351 [label="SYS_CALL <= 3.5\ngini = 0.0394\nsamples = 1151\nvalue = [1128, 11, 0, 0, 0, 11, 0, 1]"] ;
5 -> 351 ;
352 [label="gini = 0.0171\nsamples = 349\nvalue = [346, 1, 0, 0, 0, 2, 0, 0]"] ;
351 -> 352 ;
353 [label="SYS_CALL <= 4.5\ngini = 0.049\nsamples = 802\nvalue = [782, 10, 0, 0, 0, 9, 0, 1]"] ;
351 -> 353 ;
354 [label="gini = 0.1327\nsamples = 28\nvalue = [26, 2, 0, 0, 0, 0, 0, 0]"] ;
353 -> 354 ;
355 [label="SYS_CALL <= 218.5\ngini = 0.0457\nsamples = 774\nvalue = [756, 8, 0, 0, 0, 9, 0, 1]"] ;
353 -> 355 ;
356 [label="SYS_CALL <= 96.5\ngini = 0.0426\nsamples = 739\nvalue = [723, 7, 0, 0, 0, 9, 0, 0]"] ;
355 -> 356 ;
357 [label="SYS_CALL <= 84.5\ngini = 0.0535\nsamples = 403\nvalue = [392, 5, 0, 0, 0, 6, 0, 0]"] ;
356 -> 357 ;
358 [label="SYS_CALL <= 5.5\ngini = 0.0455\nsamples = 259\nvalue = [253, 2, 0, 0, 0, 4, 0, 0]"] ;
357 -> 358 ;
359 [label="gini = 0.0574\nsamples = 136\nvalue = [132, 1, 0, 0, 0, 3, 0, 0]"] ;
358 -> 359 ;
360 [label="SYS_CALL <= 42.0\ngini = 0.0321\nsamples = 123\nvalue = [121, 1, 0, 0, 0, 1, 0, 0]"] ;
358 -> 360 ;
361 [label="gini = 0.0326\nsamples = 121\nvalue = [119, 1, 0, 0, 0, 1, 0, 0]"] ;
360 -> 361 ;
362 [label="gini = 0.0\nsamples = 2\nvalue = [2, 0, 0, 0, 0, 0, 0, 0]"] ;
360 -> 362 ;
363 [label="gini = 0.0676\nsamples = 144\nvalue = [139, 3, 0, 0, 0, 2, 0, 0]"] ;
357 -> 363 ;
364 [label="SYS_CALL <= 180.0\ngini = 0.0294\nsamples = 336\nvalue = [331, 2, 0, 0, 0, 3, 0, 0]"] ;
356 -> 364 ;
365 [label="gini = 0.0\nsamples = 51\nvalue = [51, 0, 0, 0, 0, 0, 0, 0]"] ;
364 -> 365 ;
366 [label="SYS_CALL <= 194.5\ngini = 0.0346\nsamples = 285\nvalue = [280, 2, 0, 0, 0, 3, 0, 0]"] ;
364 -> 366 ;
367 [label="gini = 0.0447\nsamples = 132\nvalue = [129, 1, 0, 0, 0, 2, 0, 0]"] ;
366 -> 367 ;
368 [label="gini = 0.0259\nsamples = 153\nvalue = [151, 1, 0, 0, 0, 1, 0, 0]"] ;
366 -> 368 ;
369 [label="SYS_CALL <= 252.5\ngini = 0.1094\nsamples = 35\nvalue = [33, 1, 0, 0, 0, 0, 0, 1]"] ;
355 -> 369 ;
370 [label="gini = 0.5\nsamples = 2\nvalue = [1, 0, 0, 0, 0, 0, 0, 1]"] ;
369 -> 370 ;
371 [label="gini = 0.0588\nsamples = 33\nvalue = [32, 1, 0, 0, 0, 0, 0, 0]"] ;
369 -> 371 ;
372 [label="SYS_CALL <= 252.5\ngini = 0.0369\nsamples = 1710\nvalue = [1678, 14, 2, 2, 0, 14, 0, 0]"] ;
4 -> 372 ;
373 [label="SYS_CALL <= 175.5\ngini = 0.0303\nsamples = 1438\nvalue = [1416, 9, 0, 1, 0, 12, 0, 0]"] ;
372 -> 373 ;
374 [label="SYS_CALL <= 135.0\ngini = 0.0349\nsamples = 1131\nvalue = [1111, 8, 0, 0, 0, 12, 0, 0]"] ;
373 -> 374 ;
375 [label="SYS_CALL <= 42.0\ngini = 0.0346\nsamples = 912\nvalue = [896, 8, 0, 0, 0, 8, 0, 0]"] ;
374 -> 375 ;
376 [label="SYS_CALL <= 4.5\ngini = 0.0219\nsamples = 181\nvalue = [179, 0, 0, 0, 0, 2, 0, 0]"] ;
375 -> 376 ;
377 [label="SYS_CALL <= 3.5\ngini = 0.0265\nsamples = 149\nvalue = [147, 0, 0, 0, 0, 2, 0, 0]"] ;
376 -> 377 ;
378 [label="gini = 0.0294\nsamples = 67\nvalue = [66, 0, 0, 0, 0, 1, 0, 0]"] ;
377 -> 378 ;
379 [label="gini = 0.0241\nsamples = 82\nvalue = [81, 0, 0, 0, 0, 1, 0, 0]"] ;
377 -> 379 ;
380 [label="gini = 0.0\nsamples = 32\nvalue = [32, 0, 0, 0, 0, 0, 0, 0]"] ;
376 -> 380 ;
381 [label="SYS_CALL <= 84.5\ngini = 0.0377\nsamples = 731\nvalue = [717, 8, 0, 0, 0, 6, 0, 0]"] ;
375 -> 381 ;
382 [label="gini = 0.0401\nsamples = 639\nvalue = [626, 7, 0, 0, 0, 6, 0, 0]"] ;
381 -> 382 ;
383 [label="SYS_CALL <= 96.5\ngini = 0.0215\nsamples = 92\nvalue = [91, 1, 0, 0, 0, 0, 0, 0]"] ;
381 -> 383 ;
384 [label="gini = 0.0\nsamples = 10\nvalue = [10, 0, 0, 0, 0, 0, 0, 0]"] ;
383 -> 384 ;
385 [label="gini = 0.0241\nsamples = 82\nvalue = [81, 1, 0, 0, 0, 0, 0, 0]"] ;
383 -> 385 ;
386 [label="gini = 0.0359\nsamples = 219\nvalue = [215, 0, 0, 0, 0, 4, 0, 0]"] ;
374 -> 386 ;
387 [label="SYS_CALL <= 187.5\ngini = 0.013\nsamples = 307\nvalue = [305, 1, 0, 1, 0, 0, 0, 0]"] ;
373 -> 387 ;
388 [label="gini = 0.0164\nsamples = 243\nvalue = [241, 1, 0, 1, 0, 0, 0, 0]"] ;
387 -> 388 ;
389 [label="gini = 0.0\nsamples = 64\nvalue = [64, 0, 0, 0, 0, 0, 0, 0]"] ;
387 -> 389 ;
390 [label="gini = 0.0717\nsamples = 272\nvalue = [262, 5, 2, 1, 0, 2, 0, 0]"] ;
372 -> 390 ;
391 [label="SYS_CALL <= 260.5\ngini = 0.0377\nsamples = 3562\nvalue = [3494, 30, 4, 8, 0, 26, 0, 0]"] ;
3 -> 391 ;
392 [label="SYS_CALL <= 225.5\ngini = 0.0347\nsamples = 2278\nvalue = [2238, 20, 3, 4, 0, 13, 0, 0]"] ;
391 -> 392 ;
393 [label="SYS_CALL <= 168.0\ngini = 0.0376\nsamples = 1731\nvalue = [1698, 17, 3, 4, 0, 9, 0, 0]"] ;
392 -> 393 ;
394 [label="SYS_CALL <= 121.5\ngini = 0.0377\nsamples = 1625\nvalue = [1594, 16, 2, 4, 0, 9, 0, 0]"] ;
393 -> 394 ;
395 [label="gini = 0.0377\nsamples = 1623\nvalue = [1592, 16, 2, 4, 0, 9, 0, 0]"] ;
394 -> 395 ;
396 [label="gini = 0.0\nsamples = 2\nvalue = [2, 0, 0, 0, 0, 0, 0, 0]"] ;
394 -> 396 ;
397 [label="gini = 0.0372\nsamples = 106\nvalue = [104, 1, 1, 0, 0, 0, 0, 0]"] ;
393 -> 397 ;
398 [label="gini = 0.0253\nsamples = 547\nvalue = [540, 3, 0, 0, 0, 4, 0, 0]"] ;
392 -> 398 ;
399 [label="SYS_CALL <= 280.0\ngini = 0.043\nsamples = 1284\nvalue = [1256, 10, 1, 4, 0, 13, 0, 0]"] ;
391 -> 399 ;
400 [label="gini = 0.043\nsamples = 1283\nvalue = [1255, 10, 1, 4, 0, 13, 0, 0]"] ;
399 -> 400 ;
401 [label="gini = 0.0\nsamples = 1\nvalue = [1, 0, 0, 0, 0, 0, 0, 0]"] ;
399 -> 401 ;
402 [label="SYS_CALL <= 96.5\ngini = 0.0302\nsamples = 8924\nvalue = [8788, 57, 9, 17, 0, 53, 0, 0]"] ;
2 -> 402 ;
403 [label="SYS_CALL <= 3.5\ngini = 0.0255\nsamples = 3339\nvalue = [3296, 21, 2, 8, 0, 12, 0, 0]"] ;
402 -> 403 ;
404 [label="gini = 0.0209\nsamples = 1233\nvalue = [1220, 5, 0, 1, 0, 7, 0, 0]"] ;
403 -> 404 ;
405 [label="SYS_CALL <= 4.5\ngini = 0.0282\nsamples = 2106\nvalue = [2076, 16, 2, 7, 0, 5, 0, 0]"] ;
403 -> 405 ;
406 [label="gini = 0.032\nsamples = 1547\nvalue = [1522, 14, 1, 5, 0, 5, 0, 0]"] ;
405 -> 406 ;
407 [label="SYS_CALL <= 5.5\ngini = 0.0178\nsamples = 559\nvalue = [554, 2, 1, 2, 0, 0, 0, 0]"] ;
405 -> 407 ;
408 [label="gini = 0.0202\nsamples = 98\nvalue = [97, 0, 1, 0, 0, 0, 0, 0]"] ;
407 -> 408 ;
409 [label="SYS_CALL <= 55.5\ngini = 0.0172\nsamples = 461\nvalue = [457, 2, 0, 2, 0, 0, 0, 0]"] ;
407 -> 409 ;
410 [label="SYS_CALL <= 19.5\ngini = 0.0124\nsamples = 160\nvalue = [159, 0, 0, 1, 0, 0, 0, 0]"] ;
409 -> 410 ;
411 [label="gini = 0.0127\nsamples = 156\nvalue = [155, 0, 0, 1, 0, 0, 0, 0]"] ;
410 -> 411 ;
412 [label="gini = 0.0\nsamples = 4\nvalue = [4, 0, 0, 0, 0, 0, 0, 0]"] ;
410 -> 412 ;
413 [label="SYS_CALL <= 84.5\ngini = 0.0198\nsamples = 301\nvalue = [298, 2, 0, 1, 0, 0, 0, 0]"] ;
409 -> 413 ;
414 [label="gini = 0.0214\nsamples = 185\nvalue = [183, 1, 0, 1, 0, 0, 0, 0]"] ;
413 -> 414 ;
415 [label="gini = 0.0171\nsamples = 116\nvalue = [115, 1, 0, 0, 0, 0, 0, 0]"] ;
413 -> 415 ;
416 [label="SYS_CALL <= 180.0\ngini = 0.0329\nsamples = 5585\nvalue = [5492, 36, 7, 9, 0, 41, 0, 0]"] ;
402 -> 416 ;
417 [label="SYS_CALL <= 157.0\ngini = 0.0356\nsamples = 3777\nvalue = [3709, 23, 5, 6, 0, 34, 0, 0]"] ;
416 -> 417 ;
418 [label="SYS_CALL <= 113.5\ngini = 0.0343\nsamples = 1498\nvalue = [1472, 12, 1, 0, 0, 13, 0, 0]"] ;
417 -> 418 ;
419 [label="gini = 0.0344\nsamples = 1492\nvalue = [1466, 12, 1, 0, 0, 13, 0, 0]"] ;
418 -> 419 ;
420 [label="gini = 0.0\nsamples = 6\nvalue = [6, 0, 0, 0, 0, 0, 0, 0]"] ;
418 -> 420 ;
421 [label="gini = 0.0364\nsamples = 2279\nvalue = [2237, 11, 4, 6, 0, 21, 0, 0]"] ;
417 -> 421 ;
422 [label="SYS_CALL <= 218.5\ngini = 0.0274\nsamples = 1808\nvalue = [1783, 13, 2, 3, 0, 7, 0, 0]"] ;
416 -> 422 ;
423 [label="SYS_CALL <= 196.0\ngini = 0.0237\nsamples = 250\nvalue = [247, 3, 0, 0, 0, 0, 0, 0]"] ;
422 -> 423 ;
424 [label="SYS_CALL <= 193.5\ngini = 0.0154\nsamples = 129\nvalue = [128, 1, 0, 0, 0, 0, 0, 0]"] ;
423 -> 424 ;
425 [label="gini = 0.0163\nsamples = 122\nvalue = [121, 1, 0, 0, 0, 0, 0, 0]"] ;
424 -> 425 ;
426 [label="gini = 0.0\nsamples = 7\nvalue = [7, 0, 0, 0, 0, 0, 0, 0]"] ;
424 -> 426 ;
427 [label="gini = 0.0325\nsamples = 121\nvalue = [119, 2, 0, 0, 0, 0, 0, 0]"] ;
423 -> 427 ;
428 [label="SYS_CALL <= 252.5\ngini = 0.028\nsamples = 1558\nvalue = [1536, 10, 2, 3, 0, 7, 0, 0]"] ;
422 -> 428 ;
429 [label="gini = 0.0262\nsamples = 151\nvalue = [149, 1, 0, 0, 0, 1, 0, 0]"] ;
428 -> 429 ;
430 [label="SYS_CALL <= 280.0\ngini = 0.0282\nsamples = 1407\nvalue = [1387, 9, 2, 3, 0, 6, 0, 0]"] ;
428 -> 430 ;
431 [label="gini = 0.0282\nsamples = 1405\nvalue = [1385, 9, 2, 3, 0, 6, 0, 0]"] ;
430 -> 431 ;
432 [label="gini = 0.0\nsamples = 2\nvalue = [2, 0, 0, 0, 0, 0, 0, 0]"] ;
430 -> 432 ;
433 [label="SYS_CALL <= 288.0\ngini = 0.21\nsamples = 2542\nvalue = [0, 2239, 0, 303, 0, 0, 0, 0]"] ;
1 -> 433 ;
434 [label="SYS_CALL <= 274.5\ngini = 0.2123\nsamples = 2493\nvalue = [0, 2192, 0, 301, 0, 0, 0, 0]"] ;
433 -> 434 ;
435 [label="SYS_CALL <= 260.5\ngini = 0.2118\nsamples = 2492\nvalue = [0, 2192, 0, 300, 0, 0, 0, 0]"] ;
434 -> 435 ;
436 [label="SYS_CALL <= 84.5\ngini = 0.2203\nsamples = 1801\nvalue = [0, 1574, 0, 227, 0, 0, 0, 0]"] ;
435 -> 436 ;
437 [label="SYS_CALL <= 66.0\ngini = 0.1956\nsamples = 874\nvalue = [0, 778, 0, 96, 0, 0, 0, 0]"] ;
436 -> 437 ;
438 [label="SYS_CALL <= 3.5\ngini = 0.2468\nsamples = 215\nvalue = [0, 184, 0, 31, 0, 0, 0, 0]"] ;
437 -> 438 ;
439 [label="gini = 0.1244\nsamples = 45\nvalue = [0, 42, 0, 3, 0, 0, 0, 0]"] ;
438 -> 439 ;
440 [label="SYS_CALL <= 4.5\ngini = 0.2752\nsamples = 170\nvalue = [0, 142, 0, 28, 0, 0, 0, 0]"] ;
438 -> 440 ;
441 [label="gini = 0.4959\nsamples = 11\nvalue = [0, 6, 0, 5, 0, 0, 0, 0]"] ;
440 -> 441 ;
442 [label="SYS_CALL <= 5.5\ngini = 0.2475\nsamples = 159\nvalue = [0, 136, 0, 23, 0, 0, 0, 0]"] ;
440 -> 442 ;
443 [label="gini = 0.0\nsamples = 7\nvalue = [0, 7, 0, 0, 0, 0, 0, 0]"] ;
442 -> 443 ;
444 [label="SYS_CALL <= 6.5\ngini = 0.2568\nsamples = 152\nvalue = [0, 129, 0, 23, 0, 0, 0, 0]"] ;
442 -> 444 ;
445 [label="gini = 0.4444\nsamples = 3\nvalue = [0, 1, 0, 2, 0, 0, 0, 0]"] ;
444 -> 445 ;
446 [label="SYS_CALL <= 30.5\ngini = 0.2422\nsamples = 149\nvalue = [0, 128, 0, 21, 0, 0, 0, 0]"] ;
444 -> 446 ;
447 [label="gini = 0.1528\nsamples = 12\nvalue = [0, 11, 0, 1, 0, 0, 0, 0]"] ;
446 -> 447 ;
448 [label="gini = 0.2493\nsamples = 137\nvalue = [0, 117, 0, 20, 0, 0, 0, 0]"] ;
446 -> 448 ;
449 [label="gini = 0.1778\nsamples = 659\nvalue = [0, 594, 0, 65, 0, 0, 0, 0]"] ;
437 -> 449 ;
450 [label="SYS_CALL <= 96.5\ngini = 0.2427\nsamples = 927\nvalue = [0, 796, 0, 131, 0, 0, 0, 0]"] ;
436 -> 450 ;
451 [label="gini = 0.426\nsamples = 13\nvalue = [0, 9, 0, 4, 0, 0, 0, 0]"] ;
450 -> 451 ;
452 [label="SYS_CALL <= 157.0\ngini = 0.2393\nsamples = 914\nvalue = [0, 787, 0, 127, 0, 0, 0, 0]"] ;
450 -> 452 ;
453 [label="SYS_CALL <= 103.0\ngini = 0.2585\nsamples = 531\nvalue = [0, 450, 0, 81, 0, 0, 0, 0]"] ;
452 -> 453 ;
454 [label="gini = 0.2436\nsamples = 310\nvalue = [0, 266, 0, 44, 0, 0, 0, 0]"] ;
453 -> 454 ;
455 [label="SYS_CALL <= 122.0\ngini = 0.2788\nsamples = 221\nvalue = [0, 184, 0, 37, 0, 0, 0, 0]"] ;
453 -> 455 ;
456 [label="SYS_CALL <= 111.5\ngini = 0.32\nsamples = 60\nvalue = [0, 48, 0, 12, 0, 0, 0, 0]"] ;
455 -> 456 ;
457 [label="gini = 0.3074\nsamples = 58\nvalue = [0, 47, 0, 11, 0, 0, 0, 0]"] ;
456 -> 457 ;
458 [label="gini = 0.5\nsamples = 2\nvalue = [0, 1, 0, 1, 0, 0, 0, 0]"] ;
456 -> 458 ;
459 [label="SYS_CALL <= 133.5\ngini = 0.2623\nsamples = 161\nvalue = [0, 136, 0, 25, 0, 0, 0, 0]"] ;
455 -> 459 ;
460 [label="gini = 0.0\nsamples = 1\nvalue = [0, 1, 0, 0, 0, 0, 0, 0]"] ;
459 -> 460 ;
461 [label="SYS_CALL <= 144.0\ngini = 0.2637\nsamples = 160\nvalue = [0, 135, 0, 25, 0, 0, 0, 0]"] ;
459 -> 461 ;
462 [label="gini = 0.2645\nsamples = 51\nvalue = [0, 43, 0, 8, 0, 0, 0, 0]"] ;
461 -> 462 ;
463 [label="gini = 0.2633\nsamples = 109\nvalue = [0, 92, 0, 17, 0, 0, 0, 0]"] ;
461 -> 463 ;
464 [label="SYS_CALL <= 230.5\ngini = 0.2114\nsamples = 383\nvalue = [0, 337, 0, 46, 0, 0, 0, 0]"] ;
452 -> 464 ;
465 [label="SYS_CALL <= 193.5\ngini = 0.1723\nsamples = 189\nvalue = [0, 171, 0, 18, 0, 0, 0, 0]"] ;
464 -> 465 ;
466 [label="SYS_CALL <= 175.5\ngini = 0.1827\nsamples = 177\nvalue = [0, 159, 0, 18, 0, 0, 0, 0]"] ;
465 -> 466 ;
467 [label="gini = 0.1884\nsamples = 152\nvalue = [0, 136, 0, 16, 0, 0, 0, 0]"] ;
466 -> 467 ;
468 [label="SYS_CALL <= 191.5\ngini = 0.1472\nsamples = 25\nvalue = [0, 23, 0, 2, 0, 0, 0, 0]"] ;
466 -> 468 ;
469 [label="gini = 0.0\nsamples = 2\nvalue = [0, 2, 0, 0, 0, 0, 0, 0]"] ;
468 -> 469 ;
470 [label="gini = 0.1588\nsamples = 23\nvalue = [0, 21, 0, 2, 0, 0, 0, 0]"] ;
468 -> 470 ;
471 [label="gini = 0.0\nsamples = 12\nvalue = [0, 12, 0, 0, 0, 0, 0, 0]"] ;
465 -> 471 ;
472 [label="SYS_CALL <= 248.0\ngini = 0.247\nsamples = 194\nvalue = [0, 166, 0, 28, 0, 0, 0, 0]"] ;
464 -> 472 ;
473 [label="gini = 0.375\nsamples = 4\nvalue = [0, 3, 0, 1, 0, 0, 0, 0]"] ;
472 -> 473 ;
474 [label="gini = 0.2438\nsamples = 190\nvalue = [0, 163, 0, 27, 0, 0, 0, 0]"] ;
472 -> 474 ;
475 [label="gini = 0.189\nsamples = 691\nvalue = [0, 618, 0, 73, 0, 0, 0, 0]"] ;
435 -> 475 ;
476 [label="gini = 0.0\nsamples = 1\nvalue = [0, 0, 0, 1, 0, 0, 0, 0]"] ;
434 -> 476 ;
477 [label="gini = 0.0783\nsamples = 49\nvalue = [0, 47, 0, 2, 0, 0, 0, 0]"] ;
433 -> 477 ;
478 [label="SYS_CALL <= 278.5\ngini = 0.1851\nsamples = 3835\nvalue = [14, 3441, 0, 380, 0, 0, 0, 0]"] ;
0 -> 478 [labeldistance=2.5, labelangle=-45, headlabel="False"] ;
479 [label="SYS_CALL <= 30.5\ngini = 0.1826\nsamples = 3766\nvalue = [14, 3385, 0, 367, 0, 0, 0, 0]"] ;
478 -> 479 ;
480 [label="SYS_CALL <= 3.5\ngini = 0.2798\nsamples = 107\nvalue = [0, 89, 0, 18, 0, 0, 0, 0]"] ;
479 -> 480 ;
481 [label="gini = 0.1922\nsamples = 65\nvalue = [0, 58, 0, 7, 0, 0, 0, 0]"] ;
480 -> 481 ;
482 [label="SYS_CALL <= 4.5\ngini = 0.3866\nsamples = 42\nvalue = [0, 31, 0, 11, 0, 0, 0, 0]"] ;
480 -> 482 ;
483 [label="gini = 0.4654\nsamples = 19\nvalue = [0, 12, 0, 7, 0, 0, 0, 0]"] ;
482 -> 483 ;
484 [label="SYS_CALL <= 6.5\ngini = 0.2873\nsamples = 23\nvalue = [0, 19, 0, 4, 0, 0, 0, 0]"] ;
482 -> 484 ;
485 [label="gini = 0.0\nsamples = 8\nvalue = [0, 8, 0, 0, 0, 0, 0, 0]"] ;
484 -> 485 ;
486 [label="gini = 0.3911\nsamples = 15\nvalue = [0, 11, 0, 4, 0, 0, 0, 0]"] ;
484 -> 486 ;
487 [label="SYS_CALL <= 66.0\ngini = 0.1795\nsamples = 3659\nvalue = [14, 3296, 0, 349, 0, 0, 0, 0]"] ;
479 -> 487 ;
488 [label="gini = 0.1958\nsamples = 200\nvalue = [0, 178, 0, 22, 0, 0, 0, 0]"] ;
487 -> 488 ;
489 [label="SYS_CALL <= 248.0\ngini = 0.1785\nsamples = 3459\nvalue = [14, 3118, 0, 327, 0, 0, 0, 0]"] ;
487 -> 489 ;
490 [label="SYS_CALL <= 196.5\ngini = 0.1766\nsamples = 2037\nvalue = [12, 1839, 0, 186, 0, 0, 0, 0]"] ;
489 -> 490 ;
491 [label="SYS_CALL <= 195.5\ngini = 0.179\nsamples = 2007\nvalue = [12, 1809, 0, 186, 0, 0, 0, 0]"] ;
490 -> 491 ;
492 [label="SYS_CALL <= 193.5\ngini = 0.1781\nsamples = 2006\nvalue = [11, 1809, 0, 186, 0, 0, 0, 0]"] ;
491 -> 492 ;
493 [label="SYS_CALL <= 191.5\ngini = 0.1785\nsamples = 2002\nvalue = [11, 1805, 0, 186, 0, 0, 0, 0]"] ;
492 -> 493 ;
494 [label="SYS_CALL <= 171.5\ngini = 0.1775\nsamples = 1974\nvalue = [11, 1781, 0, 182, 0, 0, 0, 0]"] ;
493 -> 494 ;
495 [label="SYS_CALL <= 103.0\ngini = 0.1783\nsamples = 1963\nvalue = [11, 1770, 0, 182, 0, 0, 0, 0]"] ;
494 -> 495 ;
496 [label="SYS_CALL <= 98.0\ngini = 0.1811\nsamples = 1479\nvalue = [8, 1331, 0, 140, 0, 0, 0, 0]"] ;
495 -> 496 ;
497 [label="SYS_CALL <= 92.5\ngini = 0.1777\nsamples = 998\nvalue = [3, 900, 0, 95, 0, 0, 0, 0]"] ;
496 -> 497 ;
498 [label="SYS_CALL <= 88.0\ngini = 0.1778\nsamples = 997\nvalue = [3, 899, 0, 95, 0, 0, 0, 0]"] ;
497 -> 498 ;
499 [label="SYS_CALL <= 81.5\ngini = 0.1771\nsamples = 971\nvalue = [3, 876, 0, 92, 0, 0, 0, 0]"] ;
498 -> 499 ;
500 [label="gini = 0.1773\nsamples = 970\nvalue = [3, 875, 0, 92, 0, 0, 0, 0]"] ;
499 -> 500 ;
501 [label="gini = 0.0\nsamples = 1\nvalue = [0, 1, 0, 0, 0, 0, 0, 0]"] ;
499 -> 501 ;
502 [label="gini = 0.2041\nsamples = 26\nvalue = [0, 23, 0, 3, 0, 0, 0, 0]"] ;
498 -> 502 ;
503 [label="gini = 0.0\nsamples = 1\nvalue = [0, 1, 0, 0, 0, 0, 0, 0]"] ;
497 -> 503 ;
504 [label="gini = 0.1882\nsamples = 481\nvalue = [5, 431, 0, 45, 0, 0, 0, 0]"] ;
496 -> 504 ;
505 [label="SYS_CALL <= 111.5\ngini = 0.1697\nsamples = 484\nvalue = [3, 439, 0, 42, 0, 0, 0, 0]"] ;
495 -> 505 ;
506 [label="gini = 0.0897\nsamples = 85\nvalue = [0, 81, 0, 4, 0, 0, 0, 0]"] ;
505 -> 506 ;
507 [label="SYS_CALL <= 144.0\ngini = 0.1858\nsamples = 399\nvalue = [3, 358, 0, 38, 0, 0, 0, 0]"] ;
505 -> 507 ;
508 [label="SYS_CALL <= 122.0\ngini = 0.2297\nsamples = 68\nvalue = [0, 59, 0, 9, 0, 0, 0, 0]"] ;
507 -> 508 ;
509 [label="gini = 0.32\nsamples = 5\nvalue = [0, 4, 0, 1, 0, 0, 0, 0]"] ;
508 -> 509 ;
510 [label="SYS_CALL <= 133.5\ngini = 0.2217\nsamples = 63\nvalue = [0, 55, 0, 8, 0, 0, 0, 0]"] ;
508 -> 510 ;
511 [label="gini = 0.0\nsamples = 1\nvalue = [0, 1, 0, 0, 0, 0, 0, 0]"] ;
510 -> 511 ;
512 [label="gini = 0.2248\nsamples = 62\nvalue = [0, 54, 0, 8, 0, 0, 0, 0]"] ;
510 -> 512 ;
513 [label="SYS_CALL <= 157.0\ngini = 0.1762\nsamples = 331\nvalue = [3, 299, 0, 29, 0, 0, 0, 0]"] ;
507 -> 513 ;
514 [label="gini = 0.1731\nsamples = 137\nvalue = [1, 124, 0, 12, 0, 0, 0, 0]"] ;
513 -> 514 ;
515 [label="gini = 0.1785\nsamples = 194\nvalue = [2, 175, 0, 17, 0, 0, 0, 0]"] ;
513 -> 515 ;
516 [label="gini = 0.0\nsamples = 11\nvalue = [0, 11, 0, 0, 0, 0, 0, 0]"] ;
494 -> 516 ;
517 [label="gini = 0.2449\nsamples = 28\nvalue = [0, 24, 0, 4, 0, 0, 0, 0]"] ;
493 -> 517 ;
518 [label="gini = 0.0\nsamples = 4\nvalue = [0, 4, 0, 0, 0, 0, 0, 0]"] ;
492 -> 518 ;
519 [label="gini = 0.0\nsamples = 1\nvalue = [1, 0, 0, 0, 0, 0, 0, 0]"] ;
491 -> 519 ;
520 [label="gini = 0.0\nsamples = 30\nvalue = [0, 30, 0, 0, 0, 0, 0, 0]"] ;
490 -> 520 ;
521 [label="SYS_CALL <= 260.5\ngini = 0.1812\nsamples = 1422\nvalue = [2, 1279, 0, 141, 0, 0, 0, 0]"] ;
489 -> 521 ;
522 [label="gini = 0.1858\nsamples = 328\nvalue = [0, 294, 0, 34, 0, 0, 0, 0]"] ;
521 -> 522 ;
523 [label="gini = 0.1798\nsamples = 1094\nvalue = [2, 985, 0, 107, 0, 0, 0, 0]"] ;
521 -> 523 ;
524 [label="SYS_CALL <= 293.5\ngini = 0.3058\nsamples = 69\nvalue = [0, 56, 0, 13, 0, 0, 0, 0]"] ;
478 -> 524 ;
525 [label="gini = 0.3093\nsamples = 68\nvalue = [0, 55, 0, 13, 0, 0, 0, 0]"] ;
524 -> 525 ;
526 [label="gini = 0.0\nsamples = 1\nvalue = [0, 1, 0, 0, 0, 0, 0, 0]"] ;
524 -> 526 ;
}